<?xml version="1.0"?>
<opencv_storage>
<cascade>
  <stageType>BOOST</stageType>
  <featureType>HAAR</featureType>
  <height>20</height>
  <width>20</width>
  <stageParams>
    <boostType>GAB</boostType>
    <minHitRate>9.9500000476837158e-01</minHitRate>
    <maxFalseAlarm>5.0000000000000000e-01</maxFalseAlarm>
    <weightTrimRate>9.4999999999999996e-01</weightTrimRate>
    <maxDepth>1</maxDepth>
    <maxWeakCount>100</maxWeakCount></stageParams>
  <featureParams>
    <maxCatCount>0</maxCatCount>
    <featSize>1</featSize>
    <mode>BASIC</mode></featureParams>
  <stageNum>9</stageNum>
  <stages>
    <!-- stage 0 -->
    <_>
      <maxWeakCount>2</maxWeakCount>
      <stageThreshold>-1.7451959848403931e-01</stageThreshold>
      <weakClassifiers>
        <_>
          <internalNodes>
            0 -1 9 -2.6370111852884293e-02</internalNodes>
          <leafValues>
            8.1448668241500854e-01 -8.4891164302825928e-01</leafValues></_>
        <_>
          <internalNodes>
            0 -1 7 -4.2653349228203297e-03</internalNodes>
          <leafValues>
            6.7439204454421997e-01 -7.7082484960556030e-01</leafValues></_></weakClassifiers></_>
    <!-- stage 1 -->
    <_>
      <maxWeakCount>2</maxWeakCount>
      <stageThreshold>-1.4562048017978668e-01</stageThreshold>
      <weakClassifiers>
        <_>
          <internalNodes>
            0 -1 19 2.2609176114201546e-02</internalNodes>
          <leafValues>
            -8.8368338346481323e-01 6.9533878564834595e-01</leafValues></_>
        <_>
          <internalNodes>
            0 -1 5 1.8486570566892624e-02</internalNodes>
          <leafValues>
            -5.5802136659622192e-01 7.3806285858154297e-01</leafValues></_></weakClassifiers></_>
    <!-- stage 2 -->
    <_>
      <maxWeakCount>3</maxWeakCount>
      <stageThreshold>-8.7975281476974487e-01</stageThreshold>
      <weakClassifiers>
        <_>
          <internalNodes>
            0 -1 13 -1.5668134437873960e-03</internalNodes>
          <leafValues>
            6.3367253541946411e-01 -8.7360596656799316e-01</leafValues></_>
        <_>
          <internalNodes>
            0 -1 38 4.7248169779777527e-02</internalNodes>
          <leafValues>
            -5.9275484085083008e-01 7.1973145008087158e-01</leafValues></_>
        <_>
          <internalNodes>
            0 -1 34 -2.1502815186977386e-02</internalNodes>
          <leafValues>
            -9.2067050933837891e-01 3.6831447482109070e-01</leafValues></_></weakClassifiers></_>
    <!-- stage 3 -->
    <_>
      <maxWeakCount>4</maxWeakCount>
      <stageThreshold>-1.2319860458374023e+00</stageThreshold>
      <weakClassifiers>
        <_>
          <internalNodes>
            0 -1 39 6.0481987893581390e-03</internalNodes>
          <leafValues>
            -6.6759777069091797e-01 6.9455647468566895e-01</leafValues></_>
        <_>
          <internalNodes>
            0 -1 24 2.5491405278444290e-02</internalNodes>
          <leafValues>
            -6.0342454910278320e-01 7.0900958776473999e-01</leafValues></_>
        <_>
          <internalNodes>
            0 -1 26 -1.6531780362129211e-02</internalNodes>
          <leafValues>
            -8.9618343114852905e-01 3.9646059274673462e-01</leafValues></_>
        <_>
          <internalNodes>
            0 -1 0 5.6921795010566711e-02</internalNodes>
          <leafValues>
            -3.7721446156501770e-01 7.8497558832168579e-01</leafValues></_></weakClassifiers></_>
    <!-- stage 4 -->
    <_>
      <maxWeakCount>5</maxWeakCount>
      <stageThreshold>-7.3733991384506226e-01</stageThreshold>
      <weakClassifiers>
        <_>
          <internalNodes>
            0 -1 27 -2.5940403342247009e-02</internalNodes>
          <leafValues>
            -9.2417061328887939e-01 5.6628620624542236e-01</leafValues></_>
        <_>
          <internalNodes>
            0 -1 43 -7.6853625476360321e-02</internalNodes>
          <leafValues>
            8.1542170047760010e-01 -4.1861775517463684e-01</leafValues></_>
        <_>
          <internalNodes>
            0 -1 40 1.3305658474564552e-02</internalNodes>
          <leafValues>
            -4.3438172340393066e-01 5.7022476196289062e-01</leafValues></_>
        <_>
          <internalNodes>
            0 -1 4 2.5915428996086121e-02</internalNodes>
          <leafValues>
            -3.7672707438468933e-01 7.0538502931594849e-01</leafValues></_>
        <_>
          <internalNodes>
            0 -1 37 2.6497775688767433e-03</internalNodes>
          <leafValues>
            -6.3285762071609497e-01 4.1195076704025269e-01</leafValues></_></weakClassifiers></_>
    <!-- stage 5 -->
    <_>
      <maxWeakCount>7</maxWeakCount>
      <stageThreshold>-9.0010857582092285e-01</stageThreshold>
      <weakClassifiers>
        <_>
          <internalNodes>
            0 -1 12 -9.7536984831094742e-03</internalNodes>
          <leafValues>
            5.4708719253540039e-01 -8.3693045377731323e-01</leafValues></_>
        <_>
          <internalNodes>
            0 -1 17 3.6923918873071671e-02</internalNodes>
          <leafValues>
            -4.6704024076461792e-01 5.9126573801040649e-01</leafValues></_>
        <_>
          <internalNodes>
            0 -1 36 4.8227719962596893e-03</internalNodes>
          <leafValues>
            -7.0949870347976685e-01 3.8629662990570068e-01</leafValues></_>
        <_>
          <internalNodes>
            0 -1 1 1.1047473549842834e-01</internalNodes>
          <leafValues>
            -3.4782680869102478e-01 7.9938495159149170e-01</leafValues></_>
        <_>
          <internalNodes>
            0 -1 14 7.8868342097848654e-04</internalNodes>
          <leafValues>
            2.5370219349861145e-01 -8.6863583326339722e-01</leafValues></_>
        <_>
          <internalNodes>
            0 -1 20 -1.3737914152443409e-02</internalNodes>
          <leafValues>
            -9.1892772912979126e-01 2.1477809548377991e-01</leafValues></_>
        <_>
          <internalNodes>
            0 -1 21 -8.7724076583981514e-03</internalNodes>
          <leafValues>
            6.8902629613876343e-01 -3.5339981317520142e-01</leafValues></_></weakClassifiers></_>
    <!-- stage 6 -->
    <_>
      <maxWeakCount>7</maxWeakCount>
      <stageThreshold>-9.6531814336776733e-01</stageThreshold>
      <weakClassifiers>
        <_>
          <internalNodes>
            0 -1 28 -6.6470634192228317e-03</internalNodes>
          <leafValues>
            7.7414965629577637e-01 -1.9349592924118042e-01</leafValues></_>
        <_>
          <internalNodes>
            0 -1 18 1.0065056383609772e-02</internalNodes>
          <leafValues>
            -3.8474991917610168e-01 5.6239122152328491e-01</leafValues></_>
        <_>
          <internalNodes>
            0 -1 11 -6.8362280726432800e-03</internalNodes>
          <leafValues>
            3.6227098107337952e-01 -6.4055681228637695e-01</leafValues></_>
        <_>
          <internalNodes>
            0 -1 2 1.1236800253391266e-01</internalNodes>
          <leafValues>
            -3.4822145104408264e-01 6.5614646673202515e-01</leafValues></_>
        <_>
          <internalNodes>
            0 -1 44 2.4286154075525701e-04</internalNodes>
          <leafValues>
            -8.0038678646087646e-01 2.2117805480957031e-01</leafValues></_>
        <_>
          <internalNodes>
            0 -1 35 -1.7538705840706825e-02</internalNodes>
          <leafValues>
            -9.0234446525573730e-01 1.7196069657802582e-01</leafValues></_>
        <_>
          <internalNodes>
            0 -1 32 8.0633617471903563e-04</internalNodes>
          <leafValues>
            -7.6580125093460083e-01 2.0856718719005585e-01</leafValues></_></weakClassifiers></_>
    <!-- stage 7 -->
    <_>
      <maxWeakCount>7</maxWeakCount>
      <stageThreshold>-9.1103750467300415e-01</stageThreshold>
      <weakClassifiers>
        <_>
          <internalNodes>
            0 -1 41 -7.5553357601165771e-02</internalNodes>
          <leafValues>
            8.5951066017150879e-01 -1.3189113140106201e-01</leafValues></_>
        <_>
          <internalNodes>
            0 -1 30 8.7466649711132050e-03</internalNodes>
          <leafValues>
            3.4567189216613770e-01 -8.2618343830108643e-01</leafValues></_>
        <_>
          <internalNodes>
            0 -1 28 -1.1748993769288063e-02</internalNodes>
          <leafValues>
            5.9248214960098267e-01 -3.4189075231552124e-01</leafValues></_>
        <_>
          <internalNodes>
            0 -1 22 -2.1295498590916395e-03</internalNodes>
          <leafValues>
            4.0037411451339722e-01 -4.7768226265907288e-01</leafValues></_>
        <_>
          <internalNodes>
            0 -1 8 -2.4840641766786575e-02</internalNodes>
          <leafValues>
            -8.6041814088821411e-01 1.7754209041595459e-01</leafValues></_>
        <_>
          <internalNodes>
            0 -1 23 3.4858142025768757e-03</internalNodes>
          <leafValues>
            1.8981131911277771e-01 -8.9285957813262939e-01</leafValues></_>
        <_>
          <internalNodes>
            0 -1 10 -1.9637052901089191e-04</internalNodes>
          <leafValues>
            2.2950752079486847e-01 -6.7259860038757324e-01</leafValues></_></weakClassifiers></_>
    <!-- stage 8 -->
    <_>
      <maxWeakCount>9</maxWeakCount>
      <stageThreshold>-7.8961855173110962e-01</stageThreshold>
      <weakClassifiers>
        <_>
          <internalNodes>
            0 -1 3 4.8120893537998199e-02</internalNodes>
          <leafValues>
            -1.4424635469913483e-01 7.3533421754837036e-01</leafValues></_>
        <_>
          <internalNodes>
            0 -1 42 -7.7264793217182159e-02</internalNodes>
          <leafValues>
            8.3844035863876343e-01 -1.5500594675540924e-01</leafValues></_>
        <_>
          <internalNodes>
            0 -1 16 -1.0661929263733327e-04</internalNodes>
          <leafValues>
            2.6368615031242371e-01 -8.3140033483505249e-01</leafValues></_>
        <_>
          <internalNodes>
            0 -1 15 -1.0114567354321480e-02</internalNodes>
          <leafValues>
            2.1977034211158752e-01 -6.9065535068511963e-01</leafValues></_>
        <_>
          <internalNodes>
            0 -1 31 -3.9490528404712677e-02</internalNodes>
          <leafValues>
            3.9849796891212463e-01 -3.8195887207984924e-01</leafValues></_>
        <_>
          <internalNodes>
            0 -1 33 -3.3579848241060972e-03</internalNodes>
          <leafValues>
            -8.9911657571792603e-01 1.3225583732128143e-01</leafValues></_>
        <_>
          <internalNodes>
            0 -1 25 6.9653415121138096e-03</internalNodes>
          <leafValues>
            1.7118881642818451e-01 -8.3741468191146851e-01</leafValues></_>
        <_>
          <internalNodes>
            0 -1 29 -2.2316977381706238e-02</internalNodes>
          <leafValues>
            -9.3772387504577637e-01 1.0305468738079071e-01</leafValues></_>
        <_>
          <internalNodes>
            0 -1 6 2.5108031928539276e-02</internalNodes>
          <leafValues>
            1.6297808289527893e-01 -7.1920585632324219e-01</leafValues></_></weakClassifiers></_></stages>
  <features>
    <_>
      <rects>
        <_>
          0 6 6 8 -1.</_>
        <_>
          3 6 3 8 2.</_></rects>
      <tilted>0</tilted></_>
    <_>
      <rects>
        <_>
          0 6 6 13 -1.</_>
        <_>
          3 6 3 13 2.</_></rects>
      <tilted>0</tilted></_>
    <_>
      <rects>
        <_>
          0 6 8 14 -1.</_>
        <_>
          4 6 4 14 2.</_></rects>
      <tilted>0</tilted></_>
    <_>
      <rects>
        <_>
          0 8 6 9 -1.</_>
        <_>
          3 8 3 9 2.</_></rects>
      <tilted>0</tilted></_>
    <_>
      <rects>
        <_>
          1 8 4 8 -1.</_>
        <_>
          3 8 2 8 2.</_></rects>
      <tilted>0</tilted></_>
    <_>
      <rects>
        <_>
          1 18 18 1 -1.</_>
        <_>
          7 18 6 1 3.</_></rects>
      <tilted>0</tilted></_>
    <_>
      <rects>
        <_>
          3 10 14 3 -1.</_>
        <_>
          10 10 7 3 2.</_></rects>
      <tilted>0</tilted></_>
    <_>
      <rects>
        <_>
          4 4 4 6 -1.</_>
        <_>
          4 4 2 3 2.</_>
        <_>
          6 7 2 3 2.</_></rects>
      <tilted>0</tilted></_>
    <_>
      <rects>
        <_>
          4 6 12 6 -1.</_>
        <_>
          10 6 6 6 2.</_></rects>
      <tilted>0</tilted></_>
    <_>
      <rects>
        <_>
          4 7 12 9 -1.</_>
        <_>
          8 7 4 9 3.</_></rects>
      <tilted>0</tilted></_>
    <_>
      <rects>
        <_>
          4 8 2 3 -1.</_>
        <_>
          5 8 1 3 2.</_></rects>
      <tilted>0</tilted></_>
    <_>
      <rects>
        <_>
          4 8 4 5 -1.</_>
        <_>
          6 8 2 5 2.</_></rects>
      <tilted>0</tilted></_>
    <_>
      <rects>
        <_>
          5 5 9 8 -1.</_>
        <_>
          5 9 9 4 2.</_></rects>
      <tilted>0</tilted></_>
    <_>
      <rects>
        <_>
          5 6 4 4 -1.</_>
        <_>
          7 6 2 4 2.</_></rects>
      <tilted>0</tilted></_>
    <_>
      <rects>
        <_>
          5 6 8 4 -1.</_>
        <_>
          9 6 4 4 2.</_></rects>
      <tilted>0</tilted></_>
    <_>
      <rects>
        <_>
          5 6 8 4 -1.</_>
        <_>
          5 8 8 2 2.</_></rects>
      <tilted>0</tilted></_>
    <_>
      <rects>
        <_>
          5 7 6 5 -1.</_>
        <_>
          7 7 2 5 3.</_></rects>
      <tilted>0</tilted></_>
    <_>
      <rects>
        <_>
          5 14 8 6 -1.</_>
        <_>
          5 16 8 2 3.</_></rects>
      <tilted>0</tilted></_>
    <_>
      <rects>
        <_>
          6 1 4 4 -1.</_>
        <_>
          6 3 4 2 2.</_></rects>
      <tilted>0</tilted></_>
    <_>
      <rects>
        <_>
          6 2 8 9 -1.</_>
        <_>
          6 5 8 3 3.</_></rects>
      <tilted>0</tilted></_>
    <_>
      <rects>
        <_>
          6 6 8 5 -1.</_>
        <_>
          10 6 4 5 2.</_></rects>
      <tilted>0</tilted></_>
    <_>
      <rects>
        <_>
          7 0 5 2 -1.</_>
        <_>
          7 1 5 1 2.</_></rects>
      <tilted>0</tilted></_>
    <_>
      <rects>
        <_>
          7 2 8 2 -1.</_>
        <_>
          7 2 4 1 2.</_>
        <_>
          11 3 4 1 2.</_></rects>
      <tilted>0</tilted></_>
    <_>
      <rects>
        <_>
          7 6 4 4 -1.</_>
        <_>
          9 6 2 4 2.</_></rects>
      <tilted>0</tilted></_>
    <_>
      <rects>
        <_>
          7 14 7 6 -1.</_>
        <_>
          7 16 7 2 3.</_></rects>
      <tilted>0</tilted></_>
    <_>
      <rects>
        <_>
          7 16 6 2 -1.</_>
        <_>
          10 16 3 2 2.</_></rects>
      <tilted>0</tilted></_>
    <_>
      <rects>
        <_>
          8 1 4 10 -1.</_>
        <_>
          8 6 4 5 2.</_></rects>
      <tilted>0</tilted></_>
    <_>
      <rects>
        <_>
          8 1 5 10 -1.</_>
        <_>
          8 6 5 5 2.</_></rects>
      <tilted>0</tilted></_>
    <_>
      <rects>
        <_>
          8 18 4 2 -1.</_>
        <_>
          8 19 4 1 2.</_></rects>
      <tilted>0</tilted></_>
    <_>
      <rects>
        <_>
          9 5 6 6 -1.</_>
        <_>
          11 5 2 6 3.</_></rects>
      <tilted>0</tilted></_>
    <_>
      <rects>
        <_>
          9 7 4 6 -1.</_>
        <_>
          11 7 2 6 2.</_></rects>
      <tilted>0</tilted></_>
    <_>
      <rects>
        <_>
          9 13 10 6 -1.</_>
        <_>
          9 13 5 3 2.</_>
        <_>
          14 16 5 3 2.</_></rects>
      <tilted>0</tilted></_>
    <_>
      <rects>
        <_>
          9 15 2 4 -1.</_>
        <_>
          9 17 2 2 2.</_></rects>
      <tilted>0</tilted></_>
    <_>
      <rects>
        <_>
          9 16 4 2 -1.</_>
        <_>
          11 16 2 2 2.</_></rects>
      <tilted>0</tilted></_>
    <_>
      <rects>
        <_>
          10 1 2 18 -1.</_>
        <_>
          10 10 2 9 2.</_></rects>
      <tilted>0</tilted></_>
    <_>
      <rects>
        <_>
          10 2 2 10 -1.</_>
        <_>
          10 7 2 5 2.</_></rects>
      <tilted>0</tilted></_>
    <_>
      <rects>
        <_>
          10 8 6 2 -1.</_>
        <_>
          13 8 3 2 2.</_></rects>
      <tilted>0</tilted></_>
    <_>
      <rects>
        <_>
          10 15 2 4 -1.</_>
        <_>
          10 17 2 2 2.</_></rects>
      <tilted>0</tilted></_>
    <_>
      <rects>
        <_>
          11 7 9 7 -1.</_>
        <_>
          14 7 3 7 3.</_></rects>
      <tilted>0</tilted></_>
    <_>
      <rects>
        <_>
          12 8 4 5 -1.</_>
        <_>
          14 8 2 5 2.</_></rects>
      <tilted>0</tilted></_>
    <_>
      <rects>
        <_>
          13 9 4 5 -1.</_>
        <_>
          15 9 2 5 2.</_></rects>
      <tilted>0</tilted></_>
    <_>
      <rects>
        <_>
          14 6 6 13 -1.</_>
        <_>
          17 6 3 13 2.</_></rects>
      <tilted>0</tilted></_>
    <_>
      <rects>
        <_>
          14 7 6 7 -1.</_>
        <_>
          17 7 3 7 2.</_></rects>
      <tilted>0</tilted></_>
    <_>
      <rects>
        <_>
          14 7 6 12 -1.</_>
        <_>
          17 7 3 12 2.</_></rects>
      <tilted>0</tilted></_>
    <_>
      <rects>
        <_>
          14 10 2 2 -1.</_>
        <_>
          15 10 1 2 2.</_></rects>
      <tilted>0</tilted></_></features></cascade>
</opencv_storage>
