<?xml version="1.0"?>
<opencv_storage>
<cascade>
  <stageType>BOOST</stageType>
  <featureType>HAAR</featureType>
  <height>20</height>
  <width>20</width>
  <stageParams>
    <boostType>GAB</boostType>
    <minHitRate>9.9500000476837158e-01</minHitRate>
    <maxFalseAlarm>5.0000000000000000e-01</maxFalseAlarm>
    <weightTrimRate>9.4999999999999996e-01</weightTrimRate>
    <maxDepth>1</maxDepth>
    <maxWeakCount>100</maxWeakCount></stageParams>
  <featureParams>
    <maxCatCount>0</maxCatCount>
    <featSize>1</featSize>
    <mode>BASIC</mode></featureParams>
  <stageNum>18</stageNum>
  <stages>
    <!-- stage 0 -->
    <_>
      <maxWeakCount>2</maxWeakCount>
      <stageThreshold>-1.7451959848403931e-01</stageThreshold>
      <weakClassifiers>
        <_>
          <internalNodes>
            0 -1 23 -2.6370111852884293e-02</internalNodes>
          <leafValues>
            8.1448668241500854e-01 -8.4891164302825928e-01</leafValues></_>
        <_>
          <internalNodes>
            0 -1 20 -4.2653349228203297e-03</internalNodes>
          <leafValues>
            6.7439204454421997e-01 -7.7082484960556030e-01</leafValues></_></weakClassifiers></_>
    <!-- stage 1 -->
    <_>
      <maxWeakCount>2</maxWeakCount>
      <stageThreshold>-1.4562048017978668e-01</stageThreshold>
      <weakClassifiers>
        <_>
          <internalNodes>
            0 -1 45 2.2609176114201546e-02</internalNodes>
          <leafValues>
            -8.8368338346481323e-01 6.9533878564834595e-01</leafValues></_>
        <_>
          <internalNodes>
            0 -1 11 1.8486570566892624e-02</internalNodes>
          <leafValues>
            -5.5802136659622192e-01 7.3806285858154297e-01</leafValues></_></weakClassifiers></_>
    <!-- stage 2 -->
    <_>
      <maxWeakCount>3</maxWeakCount>
      <stageThreshold>-8.7975281476974487e-01</stageThreshold>
      <weakClassifiers>
        <_>
          <internalNodes>
            0 -1 37 -1.5668134437873960e-03</internalNodes>
          <leafValues>
            6.3367253541946411e-01 -8.7360596656799316e-01</leafValues></_>
        <_>
          <internalNodes>
            0 -1 112 4.7248169779777527e-02</internalNodes>
          <leafValues>
            -5.9275484085083008e-01 7.1973145008087158e-01</leafValues></_>
        <_>
          <internalNodes>
            0 -1 96 -2.1502815186977386e-02</internalNodes>
          <leafValues>
            -9.2067050933837891e-01 3.6831447482109070e-01</leafValues></_></weakClassifiers></_>
    <!-- stage 3 -->
    <_>
      <maxWeakCount>4</maxWeakCount>
      <stageThreshold>-1.2319860458374023e+00</stageThreshold>
      <weakClassifiers>
        <_>
          <internalNodes>
            0 -1 120 6.0481987893581390e-03</internalNodes>
          <leafValues>
            -6.6759777069091797e-01 6.9455647468566895e-01</leafValues></_>
        <_>
          <internalNodes>
            0 -1 64 2.5491405278444290e-02</internalNodes>
          <leafValues>
            -6.0342454910278320e-01 7.0900958776473999e-01</leafValues></_>
        <_>
          <internalNodes>
            0 -1 68 -1.6531780362129211e-02</internalNodes>
          <leafValues>
            -8.9618343114852905e-01 3.9646059274673462e-01</leafValues></_>
        <_>
          <internalNodes>
            0 -1 3 5.6921795010566711e-02</internalNodes>
          <leafValues>
            -3.7721446156501770e-01 7.8497558832168579e-01</leafValues></_></weakClassifiers></_>
    <!-- stage 4 -->
    <_>
      <maxWeakCount>5</maxWeakCount>
      <stageThreshold>-7.3733991384506226e-01</stageThreshold>
      <weakClassifiers>
        <_>
          <internalNodes>
            0 -1 69 -2.5940403342247009e-02</internalNodes>
          <leafValues>
            -9.2417061328887939e-01 5.6628620624542236e-01</leafValues></_>
        <_>
          <internalNodes>
            0 -1 128 -7.6853625476360321e-02</internalNodes>
          <leafValues>
            8.1542170047760010e-01 -4.1861775517463684e-01</leafValues></_>
        <_>
          <internalNodes>
            0 -1 123 1.3305658474564552e-02</internalNodes>
          <leafValues>
            -4.3438172340393066e-01 5.7022476196289062e-01</leafValues></_>
        <_>
          <internalNodes>
            0 -1 9 2.5915428996086121e-02</internalNodes>
          <leafValues>
            -3.7672707438468933e-01 7.0538502931594849e-01</leafValues></_>
        <_>
          <internalNodes>
            0 -1 105 2.6497775688767433e-03</internalNodes>
          <leafValues>
            -6.3285762071609497e-01 4.1195076704025269e-01</leafValues></_></weakClassifiers></_>
    <!-- stage 5 -->
    <_>
      <maxWeakCount>7</maxWeakCount>
      <stageThreshold>-9.0010857582092285e-01</stageThreshold>
      <weakClassifiers>
        <_>
          <internalNodes>
            0 -1 36 -9.7536984831094742e-03</internalNodes>
          <leafValues>
            5.4708719253540039e-01 -8.3693045377731323e-01</leafValues></_>
        <_>
          <internalNodes>
            0 -1 42 3.6923918873071671e-02</internalNodes>
          <leafValues>
            -4.6704024076461792e-01 5.9126573801040649e-01</leafValues></_>
        <_>
          <internalNodes>
            0 -1 101 4.8227719962596893e-03</internalNodes>
          <leafValues>
            -7.0949870347976685e-01 3.8629662990570068e-01</leafValues></_>
        <_>
          <internalNodes>
            0 -1 4 1.1047473549842834e-01</internalNodes>
          <leafValues>
            -3.4782680869102478e-01 7.9938495159149170e-01</leafValues></_>
        <_>
          <internalNodes>
            0 -1 38 7.8868342097848654e-04</internalNodes>
          <leafValues>
            2.5370219349861145e-01 -8.6863583326339722e-01</leafValues></_>
        <_>
          <internalNodes>
            0 -1 50 -1.3737914152443409e-02</internalNodes>
          <leafValues>
            -9.1892772912979126e-01 2.1477809548377991e-01</leafValues></_>
        <_>
          <internalNodes>
            0 -1 55 -8.7724076583981514e-03</internalNodes>
          <leafValues>
            6.8902629613876343e-01 -3.5339981317520142e-01</leafValues></_></weakClassifiers></_>
    <!-- stage 6 -->
    <_>
      <maxWeakCount>7</maxWeakCount>
      <stageThreshold>-9.6531814336776733e-01</stageThreshold>
      <weakClassifiers>
        <_>
          <internalNodes>
            0 -1 79 -6.6470634192228317e-03</internalNodes>
          <leafValues>
            7.7414965629577637e-01 -1.9349592924118042e-01</leafValues></_>
        <_>
          <internalNodes>
            0 -1 43 1.0065056383609772e-02</internalNodes>
          <leafValues>
            -3.8474991917610168e-01 5.6239122152328491e-01</leafValues></_>
        <_>
          <internalNodes>
            0 -1 25 -6.8362280726432800e-03</internalNodes>
          <leafValues>
            3.6227098107337952e-01 -6.4055681228637695e-01</leafValues></_>
        <_>
          <internalNodes>
            0 -1 5 1.1236800253391266e-01</internalNodes>
          <leafValues>
            -3.4822145104408264e-01 6.5614646673202515e-01</leafValues></_>
        <_>
          <internalNodes>
            0 -1 130 2.4286154075525701e-04</internalNodes>
          <leafValues>
            -8.0038678646087646e-01 2.2117805480957031e-01</leafValues></_>
        <_>
          <internalNodes>
            0 -1 97 -1.7538705840706825e-02</internalNodes>
          <leafValues>
            -9.0234446525573730e-01 1.7196069657802582e-01</leafValues></_>
        <_>
          <internalNodes>
            0 -1 92 8.0633617471903563e-04</internalNodes>
          <leafValues>
            -7.6580125093460083e-01 2.0856718719005585e-01</leafValues></_></weakClassifiers></_>
    <!-- stage 7 -->
    <_>
      <maxWeakCount>7</maxWeakCount>
      <stageThreshold>-9.1103750467300415e-01</stageThreshold>
      <weakClassifiers>
        <_>
          <internalNodes>
            0 -1 126 -7.5553357601165771e-02</internalNodes>
          <leafValues>
            8.5951066017150879e-01 -1.3189113140106201e-01</leafValues></_>
        <_>
          <internalNodes>
            0 -1 89 8.7466649711132050e-03</internalNodes>
          <leafValues>
            3.4567189216613770e-01 -8.2618343830108643e-01</leafValues></_>
        <_>
          <internalNodes>
            0 -1 79 -1.1748993769288063e-02</internalNodes>
          <leafValues>
            5.9248214960098267e-01 -3.4189075231552124e-01</leafValues></_>
        <_>
          <internalNodes>
            0 -1 58 -2.1295498590916395e-03</internalNodes>
          <leafValues>
            4.0037411451339722e-01 -4.7768226265907288e-01</leafValues></_>
        <_>
          <internalNodes>
            0 -1 21 -2.4840641766786575e-02</internalNodes>
          <leafValues>
            -8.6041814088821411e-01 1.7754209041595459e-01</leafValues></_>
        <_>
          <internalNodes>
            0 -1 61 3.4858142025768757e-03</internalNodes>
          <leafValues>
            1.8981131911277771e-01 -8.9285957813262939e-01</leafValues></_>
        <_>
          <internalNodes>
            0 -1 24 -1.9637052901089191e-04</internalNodes>
          <leafValues>
            2.2950752079486847e-01 -6.7259860038757324e-01</leafValues></_></weakClassifiers></_>
    <!-- stage 8 -->
    <_>
      <maxWeakCount>9</maxWeakCount>
      <stageThreshold>-7.8961855173110962e-01</stageThreshold>
      <weakClassifiers>
        <_>
          <internalNodes>
            0 -1 6 4.8120893537998199e-02</internalNodes>
          <leafValues>
            -1.4424635469913483e-01 7.3533421754837036e-01</leafValues></_>
        <_>
          <internalNodes>
            0 -1 127 -7.7264793217182159e-02</internalNodes>
          <leafValues>
            8.3844035863876343e-01 -1.5500594675540924e-01</leafValues></_>
        <_>
          <internalNodes>
            0 -1 41 -1.0661929263733327e-04</internalNodes>
          <leafValues>
            2.6368615031242371e-01 -8.3140033483505249e-01</leafValues></_>
        <_>
          <internalNodes>
            0 -1 39 -1.0114567354321480e-02</internalNodes>
          <leafValues>
            2.1977034211158752e-01 -6.9065535068511963e-01</leafValues></_>
        <_>
          <internalNodes>
            0 -1 91 -3.9490528404712677e-02</internalNodes>
          <leafValues>
            3.9849796891212463e-01 -3.8195887207984924e-01</leafValues></_>
        <_>
          <internalNodes>
            0 -1 93 -3.3579848241060972e-03</internalNodes>
          <leafValues>
            -8.9911657571792603e-01 1.3225583732128143e-01</leafValues></_>
        <_>
          <internalNodes>
            0 -1 66 6.9653415121138096e-03</internalNodes>
          <leafValues>
            1.7118881642818451e-01 -8.3741468191146851e-01</leafValues></_>
        <_>
          <internalNodes>
            0 -1 84 -2.2316977381706238e-02</internalNodes>
          <leafValues>
            -9.3772387504577637e-01 1.0305468738079071e-01</leafValues></_>
        <_>
          <internalNodes>
            0 -1 17 2.5108031928539276e-02</internalNodes>
          <leafValues>
            1.6297808289527893e-01 -7.1920585632324219e-01</leafValues></_></weakClassifiers></_>
    <!-- stage 9 -->
    <_>
      <maxWeakCount>7</maxWeakCount>
      <stageThreshold>-7.8779816627502441e-01</stageThreshold>
      <weakClassifiers>
        <_>
          <internalNodes>
            0 -1 114 8.2407131791114807e-02</internalNodes>
          <leafValues>
            -7.9885877668857574e-02 7.7966099977493286e-01</leafValues></_>
        <_>
          <internalNodes>
            0 -1 57 -7.6359942555427551e-02</internalNodes>
          <leafValues>
            -9.3928009271621704e-01 2.6561510562896729e-01</leafValues></_>
        <_>
          <internalNodes>
            0 -1 12 1.7186671495437622e-02</internalNodes>
          <leafValues>
            -3.5126799345016479e-01 5.0055998563766479e-01</leafValues></_>
        <_>
          <internalNodes>
            0 -1 85 -1.7679270822554827e-03</internalNodes>
          <leafValues>
            2.5756737589836121e-01 -6.1111164093017578e-01</leafValues></_>
        <_>
          <internalNodes>
            0 -1 7 4.8018150031566620e-02</internalNodes>
          <leafValues>
            -3.4165969491004944e-01 4.3735972046852112e-01</leafValues></_>
        <_>
          <internalNodes>
            0 -1 90 3.9971366524696350e-02</internalNodes>
          <leafValues>
            1.4088764786720276e-01 -9.2214155197143555e-01</leafValues></_>
        <_>
          <internalNodes>
            0 -1 121 2.2977795451879501e-02</internalNodes>
          <leafValues>
            -4.7557237744331360e-01 3.4506040811538696e-01</leafValues></_></weakClassifiers></_>
    <!-- stage 10 -->
    <_>
      <maxWeakCount>10</maxWeakCount>
      <stageThreshold>-1.0873630046844482e+00</stageThreshold>
      <weakClassifiers>
        <_>
          <internalNodes>
            0 -1 73 7.3077357374131680e-03</internalNodes>
          <leafValues>
            4.8370927572250366e-01 -8.4313726425170898e-01</leafValues></_>
        <_>
          <internalNodes>
            0 -1 129 -8.9132063090801239e-02</internalNodes>
          <leafValues>
            6.4214801788330078e-01 -3.0096888542175293e-01</leafValues></_>
        <_>
          <internalNodes>
            0 -1 59 8.5033327341079712e-03</internalNodes>
          <leafValues>
            -7.5742387771606445e-01 2.6448342204093933e-01</leafValues></_>
        <_>
          <internalNodes>
            0 -1 65 4.3554957956075668e-02</internalNodes>
          <leafValues>
            -4.0973076224327087e-01 4.0528953075408936e-01</leafValues></_>
        <_>
          <internalNodes>
            0 -1 86 -1.5724201221019030e-03</internalNodes>
          <leafValues>
            -7.7390086650848389e-01 1.8556174635887146e-01</leafValues></_>
        <_>
          <internalNodes>
            0 -1 99 1.0966941714286804e-02</internalNodes>
          <leafValues>
            1.8100894987583160e-01 -7.5432729721069336e-01</leafValues></_>
        <_>
          <internalNodes>
            0 -1 19 -1.0336253792047501e-02</internalNodes>
          <leafValues>
            2.7075070142745972e-01 -4.7661793231964111e-01</leafValues></_>
        <_>
          <internalNodes>
            0 -1 111 4.6283868141472340e-03</internalNodes>
          <leafValues>
            -7.0169508457183838e-01 1.7193835973739624e-01</leafValues></_>
        <_>
          <internalNodes>
            0 -1 108 -2.2928370162844658e-04</internalNodes>
          <leafValues>
            -5.6452757120132446e-01 2.2481019794940948e-01</leafValues></_>
        <_>
          <internalNodes>
            0 -1 54 -4.2392113246023655e-03</internalNodes>
          <leafValues>
            -6.9360697269439697e-01 1.6414532065391541e-01</leafValues></_></weakClassifiers></_>
    <!-- stage 11 -->
    <_>
      <maxWeakCount>8</maxWeakCount>
      <stageThreshold>-5.7203066349029541e-01</stageThreshold>
      <weakClassifiers>
        <_>
          <internalNodes>
            0 -1 18 2.7575531974434853e-02</internalNodes>
          <leafValues>
            -1.4831665158271790e-01 6.6396003961563110e-01</leafValues></_>
        <_>
          <internalNodes>
            0 -1 54 4.3489420786499977e-03</internalNodes>
          <leafValues>
            2.7240988612174988e-01 -7.5636172294616699e-01</leafValues></_>
        <_>
          <internalNodes>
            0 -1 0 1.0048493742942810e-01</internalNodes>
          <leafValues>
            -2.6519304513931274e-01 6.6566711664199829e-01</leafValues></_>
        <_>
          <internalNodes>
            0 -1 100 -5.2744066342711449e-03</internalNodes>
          <leafValues>
            2.8318819403648376e-01 -6.2552499771118164e-01</leafValues></_>
        <_>
          <internalNodes>
            0 -1 135 -1.2220824137330055e-02</internalNodes>
          <leafValues>
            6.1608636379241943e-01 -2.6495993137359619e-01</leafValues></_>
        <_>
          <internalNodes>
            0 -1 35 -2.4895312264561653e-02</internalNodes>
          <leafValues>
            -8.5566788911819458e-01 1.9432395696640015e-01</leafValues></_>
        <_>
          <internalNodes>
            0 -1 34 1.0903574293479323e-03</internalNodes>
          <leafValues>
            1.7366066575050354e-01 -7.6582670211791992e-01</leafValues></_>
        <_>
          <internalNodes>
            0 -1 71 -2.8948229737579823e-03</internalNodes>
          <leafValues>
            3.3883854746818542e-01 -3.7421101331710815e-01</leafValues></_></weakClassifiers></_>
    <!-- stage 12 -->
    <_>
      <maxWeakCount>12</maxWeakCount>
      <stageThreshold>-9.9504995346069336e-01</stageThreshold>
      <weakClassifiers>
        <_>
          <internalNodes>
            0 -1 104 7.1336713153868914e-04</internalNodes>
          <leafValues>
            -5.3813558816909790e-01 5.1795333623886108e-01</leafValues></_>
        <_>
          <internalNodes>
            0 -1 31 2.1875109523534775e-03</internalNodes>
          <leafValues>
            -8.1947737932205200e-01 2.4369430541992188e-01</leafValues></_>
        <_>
          <internalNodes>
            0 -1 134 -4.1708286851644516e-02</internalNodes>
          <leafValues>
            6.6483479738235474e-01 -2.4819716811180115e-01</leafValues></_>
        <_>
          <internalNodes>
            0 -1 99 -3.1154558528214693e-03</internalNodes>
          <leafValues>
            -8.3472752571105957e-01 1.8421943485736847e-01</leafValues></_>
        <_>
          <internalNodes>
            0 -1 116 -1.7872896045446396e-02</internalNodes>
          <leafValues>
            4.4867083430290222e-01 -3.1807270646095276e-01</leafValues></_>
        <_>
          <internalNodes>
            0 -1 29 4.3297167867422104e-03</internalNodes>
          <leafValues>
            -2.8610536456108093e-01 5.6135171651840210e-01</leafValues></_>
        <_>
          <internalNodes>
            0 -1 8 2.8899546712636948e-02</internalNodes>
          <leafValues>
            -2.8973120450973511e-01 4.9456340074539185e-01</leafValues></_>
        <_>
          <internalNodes>
            0 -1 117 -9.1794342733919621e-04</internalNodes>
          <leafValues>
            -8.4311032295227051e-01 1.7650315165519714e-01</leafValues></_>
        <_>
          <internalNodes>
            0 -1 98 -1.5586030203849077e-03</internalNodes>
          <leafValues>
            1.5551657974720001e-01 -7.2468221187591553e-01</leafValues></_>
        <_>
          <internalNodes>
            0 -1 102 -2.0616501569747925e-02</internalNodes>
          <leafValues>
            -8.2845556735992432e-01 1.4690385758876801e-01</leafValues></_>
        <_>
          <internalNodes>
            0 -1 110 3.8246121257543564e-03</internalNodes>
          <leafValues>
            -2.8725203871726990e-01 4.5911216735839844e-01</leafValues></_>
        <_>
          <internalNodes>
            0 -1 133 -4.7001685015857220e-03</internalNodes>
          <leafValues>
            -6.8075740337371826e-01 1.7194254696369171e-01</leafValues></_></weakClassifiers></_>
    <!-- stage 13 -->
    <_>
      <maxWeakCount>12</maxWeakCount>
      <stageThreshold>-9.0376347303390503e-01</stageThreshold>
      <weakClassifiers>
        <_>
          <internalNodes>
            0 -1 16 1.8240113276988268e-03</internalNodes>
          <leafValues>
            -2.3662306368350983e-01 5.9117805957794189e-01</leafValues></_>
        <_>
          <internalNodes>
            0 -1 80 -1.4031278900802135e-02</internalNodes>
          <leafValues>
            5.9159356355667114e-01 -2.6612621545791626e-01</leafValues></_>
        <_>
          <internalNodes>
            0 -1 46 2.2627268917858601e-03</internalNodes>
          <leafValues>
            -3.5124963521957397e-01 3.9649930596351624e-01</leafValues></_>
        <_>
          <internalNodes>
            0 -1 115 2.9548655729740858e-03</internalNodes>
          <leafValues>
            1.8626719713211060e-01 -6.9838368892669678e-01</leafValues></_>
        <_>
          <internalNodes>
            0 -1 77 9.5795246306806803e-04</internalNodes>
          <leafValues>
            1.4912122488021851e-01 -7.3650342226028442e-01</leafValues></_>
        <_>
          <internalNodes>
            0 -1 78 -2.1149329841136932e-03</internalNodes>
          <leafValues>
            -8.2287144660949707e-01 1.1515432596206665e-01</leafValues></_>
        <_>
          <internalNodes>
            0 -1 119 -4.4894115999341011e-03</internalNodes>
          <leafValues>
            2.6836076378822327e-01 -4.4978424906730652e-01</leafValues></_>
        <_>
          <internalNodes>
            0 -1 60 -5.9194702655076981e-02</internalNodes>
          <leafValues>
            -8.1070828437805176e-01 2.0024956762790680e-01</leafValues></_>
        <_>
          <internalNodes>
            0 -1 10 6.8888753652572632e-02</internalNodes>
          <leafValues>
            -2.2962732613086700e-01 6.7279785871505737e-01</leafValues></_>
        <_>
          <internalNodes>
            0 -1 75 -7.7811507508158684e-03</internalNodes>
          <leafValues>
            -8.0262851715087891e-01 1.3534037768840790e-01</leafValues></_>
        <_>
          <internalNodes>
            0 -1 81 -8.0625675618648529e-03</internalNodes>
          <leafValues>
            6.5154498815536499e-01 -1.9624589383602142e-01</leafValues></_>
        <_>
          <internalNodes>
            0 -1 67 -2.7920319698750973e-03</internalNodes>
          <leafValues>
            -8.3224153518676758e-01 1.7763593792915344e-01</leafValues></_></weakClassifiers></_>
    <!-- stage 14 -->
    <_>
      <maxWeakCount>9</maxWeakCount>
      <stageThreshold>-7.9940003156661987e-01</stageThreshold>
      <weakClassifiers>
        <_>
          <internalNodes>
            0 -1 106 -2.4238370358943939e-02</internalNodes>
          <leafValues>
            6.5779465436935425e-01 -1.2299465388059616e-01</leafValues></_>
        <_>
          <internalNodes>
            0 -1 13 4.1823103092610836e-03</internalNodes>
          <leafValues>
            -3.8505581021308899e-01 3.9798906445503235e-01</leafValues></_>
        <_>
          <internalNodes>
            0 -1 14 6.0982067137956619e-02</internalNodes>
          <leafValues>
            1.9556359946727753e-01 -7.9236191511154175e-01</leafValues></_>
        <_>
          <internalNodes>
            0 -1 107 -7.9120544251054525e-04</internalNodes>
          <leafValues>
            -8.6936157941818237e-01 1.5369419753551483e-01</leafValues></_>
        <_>
          <internalNodes>
            0 -1 48 -1.7518401145935059e-02</internalNodes>
          <leafValues>
            1.7909464240074158e-01 -6.2629508972167969e-01</leafValues></_>
        <_>
          <internalNodes>
            0 -1 103 1.6564723104238510e-02</internalNodes>
          <leafValues>
            -3.9965888857841492e-01 3.4200191497802734e-01</leafValues></_>
        <_>
          <internalNodes>
            0 -1 72 -3.2636946998536587e-03</internalNodes>
          <leafValues>
            -7.2851669788360596e-01 1.1576530337333679e-01</leafValues></_>
        <_>
          <internalNodes>
            0 -1 49 2.9302651528269053e-03</internalNodes>
          <leafValues>
            1.2719921767711639e-01 -9.1788011789321899e-01</leafValues></_>
        <_>
          <internalNodes>
            0 -1 51 -1.2538042850792408e-02</internalNodes>
          <leafValues>
            -8.2419872283935547e-01 1.4238211512565613e-01</leafValues></_></weakClassifiers></_>
    <!-- stage 15 -->
    <_>
      <maxWeakCount>12</maxWeakCount>
      <stageThreshold>-7.7583640813827515e-01</stageThreshold>
      <weakClassifiers>
        <_>
          <internalNodes>
            0 -1 125 -4.2401738464832306e-02</internalNodes>
          <leafValues>
            6.2530416250228882e-01 -1.2121212482452393e-01</leafValues></_>
        <_>
          <internalNodes>
            0 -1 32 -5.2671832963824272e-03</internalNodes>
          <leafValues>
            6.1722886562347412e-01 -2.0952564477920532e-01</leafValues></_>
        <_>
          <internalNodes>
            0 -1 95 8.0643016844987869e-03</internalNodes>
          <leafValues>
            -3.1041306257247925e-01 4.2704027891159058e-01</leafValues></_>
        <_>
          <internalNodes>
            0 -1 26 -2.8663773555308580e-03</internalNodes>
          <leafValues>
            3.1431984901428223e-01 -4.0821078419685364e-01</leafValues></_>
        <_>
          <internalNodes>
            0 -1 47 3.7460026796907187e-03</internalNodes>
          <leafValues>
            1.4410260319709778e-01 -8.6913371086120605e-01</leafValues></_>
        <_>
          <internalNodes>
            0 -1 107 1.2856356333941221e-03</internalNodes>
          <leafValues>
            1.2079021334648132e-01 -8.5301673412322998e-01</leafValues></_>
        <_>
          <internalNodes>
            0 -1 40 -4.9894169205799699e-04</internalNodes>
          <leafValues>
            1.5521912276744843e-01 -6.6146707534790039e-01</leafValues></_>
        <_>
          <internalNodes>
            0 -1 74 1.1224480345845222e-02</internalNodes>
          <leafValues>
            -2.6638484001159668e-01 5.0257772207260132e-01</leafValues></_>
        <_>
          <internalNodes>
            0 -1 15 -4.9031328409910202e-02</internalNodes>
          <leafValues>
            -7.5989019870758057e-01 1.5429992973804474e-01</leafValues></_>
        <_>
          <internalNodes>
            0 -1 122 -4.2296331375837326e-03</internalNodes>
          <leafValues>
            3.7109938263893127e-01 -3.2456731796264648e-01</leafValues></_>
        <_>
          <internalNodes>
            0 -1 113 -1.4450784772634506e-02</internalNodes>
          <leafValues>
            4.4122576713562012e-01 -2.9603871703147888e-01</leafValues></_>
        <_>
          <internalNodes>
            0 -1 87 5.3182048723101616e-03</internalNodes>
          <leafValues>
            1.3029359281063080e-01 -9.3605905771255493e-01</leafValues></_></weakClassifiers></_>
    <!-- stage 16 -->
    <_>
      <maxWeakCount>14</maxWeakCount>
      <stageThreshold>-7.8158348798751831e-01</stageThreshold>
      <weakClassifiers>
        <_>
          <internalNodes>
            0 -1 53 1.1926233768463135e-02</internalNodes>
          <leafValues>
            -2.8020566701889038e-01 5.8168572187423706e-01</leafValues></_>
        <_>
          <internalNodes>
            0 -1 2 6.9429785013198853e-02</internalNodes>
          <leafValues>
            -2.1009954810142517e-01 5.9899377822875977e-01</leafValues></_>
        <_>
          <internalNodes>
            0 -1 22 -8.5687320679426193e-03</internalNodes>
          <leafValues>
            2.8565379977226257e-01 -5.6479531526565552e-01</leafValues></_>
        <_>
          <internalNodes>
            0 -1 94 1.0838587768375874e-03</internalNodes>
          <leafValues>
            1.5043824911117554e-01 -8.3883363008499146e-01</leafValues></_>
        <_>
          <internalNodes>
            0 -1 70 -2.0675003179349005e-04</internalNodes>
          <leafValues>
            3.6581200361251831e-01 -3.6831423640251160e-01</leafValues></_>
        <_>
          <internalNodes>
            0 -1 52 -3.2370332628488541e-02</internalNodes>
          <leafValues>
            -6.5188950300216675e-01 1.7595334351062775e-01</leafValues></_>
        <_>
          <internalNodes>
            0 -1 88 5.5049280636012554e-03</internalNodes>
          <leafValues>
            -3.0318906903266907e-01 4.4435471296310425e-01</leafValues></_>
        <_>
          <internalNodes>
            0 -1 82 -6.6491872072219849e-02</internalNodes>
          <leafValues>
            -8.9139395952224731e-01 1.4021471142768860e-01</leafValues></_>
        <_>
          <internalNodes>
            0 -1 62 2.0772705320268869e-03</internalNodes>
          <leafValues>
            1.3825671374797821e-01 -7.6744437217712402e-01</leafValues></_>
        <_>
          <internalNodes>
            0 -1 131 3.4705840051174164e-02</internalNodes>
          <leafValues>
            -2.0718912780284882e-01 5.7889968156814575e-01</leafValues></_>
        <_>
          <internalNodes>
            0 -1 30 5.2153818309307098e-02</internalNodes>
          <leafValues>
            1.3755092024803162e-01 -8.1154286861419678e-01</leafValues></_>
        <_>
          <internalNodes>
            0 -1 44 1.1241929605603218e-02</internalNodes>
          <leafValues>
            2.1516980230808258e-01 -5.3290796279907227e-01</leafValues></_>
        <_>
          <internalNodes>
            0 -1 33 -1.0474458336830139e-01</internalNodes>
          <leafValues>
            -6.9443160295486450e-01 1.4922395348548889e-01</leafValues></_>
        <_>
          <internalNodes>
            0 -1 118 -6.5692584030330181e-04</internalNodes>
          <leafValues>
            -5.7395547628402710e-01 2.1290329098701477e-01</leafValues></_></weakClassifiers></_>
    <!-- stage 17 -->
    <_>
      <maxWeakCount>11</maxWeakCount>
      <stageThreshold>-1.0833244323730469e+00</stageThreshold>
      <weakClassifiers>
        <_>
          <internalNodes>
            0 -1 63 1.3918917626142502e-02</internalNodes>
          <leafValues>
            -2.3959505558013916e-01 6.1457759141921997e-01</leafValues></_>
        <_>
          <internalNodes>
            0 -1 132 -7.7777146361768246e-04</internalNodes>
          <leafValues>
            -6.6278016567230225e-01 3.0383536219596863e-01</leafValues></_>
        <_>
          <internalNodes>
            0 -1 124 -3.8572505582123995e-04</internalNodes>
          <leafValues>
            -6.2776130437850952e-01 2.3922014236450195e-01</leafValues></_>
        <_>
          <internalNodes>
            0 -1 109 2.3662338498979807e-03</internalNodes>
          <leafValues>
            -3.1743344664573669e-01 5.8676904439926147e-01</leafValues></_>
        <_>
          <internalNodes>
            0 -1 136 -5.7799415662884712e-03</internalNodes>
          <leafValues>
            6.4257043600082397e-01 -2.5657317042350769e-01</leafValues></_>
        <_>
          <internalNodes>
            0 -1 56 -3.1382334418594837e-03</internalNodes>
          <leafValues>
            6.4577513933181763e-01 -2.5011342763900757e-01</leafValues></_>
        <_>
          <internalNodes>
            0 -1 1 6.8299174308776855e-02</internalNodes>
          <leafValues>
            -3.5282659530639648e-01 4.6221092343330383e-01</leafValues></_>
        <_>
          <internalNodes>
            0 -1 83 -5.7825855910778046e-02</internalNodes>
          <leafValues>
            7.7115666866302490e-01 -1.9778847694396973e-01</leafValues></_>
        <_>
          <internalNodes>
            0 -1 27 -1.9121542572975159e-03</internalNodes>
          <leafValues>
            2.4108040332794189e-01 -7.8935492038726807e-01</leafValues></_>
        <_>
          <internalNodes>
            0 -1 28 2.7357887011021376e-03</internalNodes>
          <leafValues>
            -7.7360469102859497e-01 1.5009154379367828e-01</leafValues></_>
        <_>
          <internalNodes>
            0 -1 76 -1.6067722812294960e-02</internalNodes>
          <leafValues>
            3.3237740397453308e-01 -4.3212878704071045e-01</leafValues></_></weakClassifiers></_></stages>
  <features>
    <_>
      <rects>
        <_>
          0 3 8 9 -1.</_>
        <_>
          4 3 4 9 2.</_></rects>
      <tilted>0</tilted></_>
    <_>
      <rects>
        <_>
          0 4 8 15 -1.</_>
        <_>
          4 4 4 15 2.</_></rects>
      <tilted>0</tilted></_>
    <_>
      <rects>
        <_>
          0 5 6 8 -1.</_>
        <_>
          3 5 3 8 2.</_></rects>
      <tilted>0</tilted></_>
    <_>
      <rects>
        <_>
          0 6 6 8 -1.</_>
        <_>
          3 6 3 8 2.</_></rects>
      <tilted>0</tilted></_>
    <_>
      <rects>
        <_>
          0 6 6 13 -1.</_>
        <_>
          3 6 3 13 2.</_></rects>
      <tilted>0</tilted></_>
    <_>
      <rects>
        <_>
          0 6 8 14 -1.</_>
        <_>
          4 6 4 14 2.</_></rects>
      <tilted>0</tilted></_>
    <_>
      <rects>
        <_>
          0 8 6 9 -1.</_>
        <_>
          3 8 3 9 2.</_></rects>
      <tilted>0</tilted></_>
    <_>
      <rects>
        <_>
          0 13 12 6 -1.</_>
        <_>
          0 13 6 3 2.</_>
        <_>
          6 16 6 3 2.</_></rects>
      <tilted>0</tilted></_>
    <_>
      <rects>
        <_>
          0 15 8 3 -1.</_>
        <_>
          4 15 4 3 2.</_></rects>
      <tilted>0</tilted></_>
    <_>
      <rects>
        <_>
          1 8 4 8 -1.</_>
        <_>
          3 8 2 8 2.</_></rects>
      <tilted>0</tilted></_>
    <_>
      <rects>
        <_>
          1 9 6 7 -1.</_>
        <_>
          3 9 2 7 3.</_></rects>
      <tilted>0</tilted></_>
    <_>
      <rects>
        <_>
          1 18 18 1 -1.</_>
        <_>
          7 18 6 1 3.</_></rects>
      <tilted>0</tilted></_>
    <_>
      <rects>
        <_>
          2 7 4 5 -1.</_>
        <_>
          4 7 2 5 2.</_></rects>
      <tilted>0</tilted></_>
    <_>
      <rects>
        <_>
          3 3 6 4 -1.</_>
        <_>
          6 3 3 4 2.</_></rects>
      <tilted>0</tilted></_>
    <_>
      <rects>
        <_>
          3 3 6 9 -1.</_>
        <_>
          3 6 6 3 3.</_></rects>
      <tilted>0</tilted></_>
    <_>
      <rects>
        <_>
          3 7 14 9 -1.</_>
        <_>
          10 7 7 9 2.</_></rects>
      <tilted>0</tilted></_>
    <_>
      <rects>
        <_>
          3 9 3 2 -1.</_>
        <_>
          4 9 1 2 3.</_></rects>
      <tilted>0</tilted></_>
    <_>
      <rects>
        <_>
          3 10 14 3 -1.</_>
        <_>
          10 10 7 3 2.</_></rects>
      <tilted>0</tilted></_>
    <_>
      <rects>
        <_>
          3 13 8 6 -1.</_>
        <_>
          3 13 4 3 2.</_>
        <_>
          7 16 4 3 2.</_></rects>
      <tilted>0</tilted></_>
    <_>
      <rects>
        <_>
          4 3 4 8 -1.</_>
        <_>
          4 3 2 4 2.</_>
        <_>
          6 7 2 4 2.</_></rects>
      <tilted>0</tilted></_>
    <_>
      <rects>
        <_>
          4 4 4 6 -1.</_>
        <_>
          4 4 2 3 2.</_>
        <_>
          6 7 2 3 2.</_></rects>
      <tilted>0</tilted></_>
    <_>
      <rects>
        <_>
          4 6 12 6 -1.</_>
        <_>
          10 6 6 6 2.</_></rects>
      <tilted>0</tilted></_>
    <_>
      <rects>
        <_>
          4 7 4 6 -1.</_>
        <_>
          6 7 2 6 2.</_></rects>
      <tilted>0</tilted></_>
    <_>
      <rects>
        <_>
          4 7 12 9 -1.</_>
        <_>
          8 7 4 9 3.</_></rects>
      <tilted>0</tilted></_>
    <_>
      <rects>
        <_>
          4 8 2 3 -1.</_>
        <_>
          5 8 1 3 2.</_></rects>
      <tilted>0</tilted></_>
    <_>
      <rects>
        <_>
          4 8 4 5 -1.</_>
        <_>
          6 8 2 5 2.</_></rects>
      <tilted>0</tilted></_>
    <_>
      <rects>
        <_>
          4 9 2 4 -1.</_>
        <_>
          5 9 1 4 2.</_></rects>
      <tilted>0</tilted></_>
    <_>
      <rects>
        <_>
          4 9 6 2 -1.</_>
        <_>
          7 9 3 2 2.</_></rects>
      <tilted>0</tilted></_>
    <_>
      <rects>
        <_>
          5 2 2 9 -1.</_>
        <_>
          5 5 2 3 3.</_></rects>
      <tilted>0</tilted></_>
    <_>
      <rects>
        <_>
          5 2 6 2 -1.</_>
        <_>
          5 2 3 1 2.</_>
        <_>
          8 3 3 1 2.</_></rects>
      <tilted>0</tilted></_>
    <_>
      <rects>
        <_>
          5 2 8 16 -1.</_>
        <_>
          5 2 4 8 2.</_>
        <_>
          9 10 4 8 2.</_></rects>
      <tilted>0</tilted></_>
    <_>
      <rects>
        <_>
          5 3 2 9 -1.</_>
        <_>
          5 6 2 3 3.</_></rects>
      <tilted>0</tilted></_>
    <_>
      <rects>
        <_>
          5 3 6 2 -1.</_>
        <_>
          5 3 3 1 2.</_>
        <_>
          8 4 3 1 2.</_></rects>
      <tilted>0</tilted></_>
    <_>
      <rects>
        <_>
          5 3 11 14 -1.</_>
        <_>
          5 10 11 7 2.</_></rects>
      <tilted>0</tilted></_>
    <_>
      <rects>
        <_>
          5 4 6 4 -1.</_>
        <_>
          8 4 3 4 2.</_></rects>
      <tilted>0</tilted></_>
    <_>
      <rects>
        <_>
          5 5 8 3 -1.</_>
        <_>
          9 5 4 3 2.</_></rects>
      <tilted>0</tilted></_>
    <_>
      <rects>
        <_>
          5 5 9 8 -1.</_>
        <_>
          5 9 9 4 2.</_></rects>
      <tilted>0</tilted></_>
    <_>
      <rects>
        <_>
          5 6 4 4 -1.</_>
        <_>
          7 6 2 4 2.</_></rects>
      <tilted>0</tilted></_>
    <_>
      <rects>
        <_>
          5 6 8 4 -1.</_>
        <_>
          9 6 4 4 2.</_></rects>
      <tilted>0</tilted></_>
    <_>
      <rects>
        <_>
          5 6 8 4 -1.</_>
        <_>
          5 8 8 2 2.</_></rects>
      <tilted>0</tilted></_>
    <_>
      <rects>
        <_>
          5 7 2 4 -1.</_>
        <_>
          6 7 1 4 2.</_></rects>
      <tilted>0</tilted></_>
    <_>
      <rects>
        <_>
          5 7 6 5 -1.</_>
        <_>
          7 7 2 5 3.</_></rects>
      <tilted>0</tilted></_>
    <_>
      <rects>
        <_>
          5 14 8 6 -1.</_>
        <_>
          5 16 8 2 3.</_></rects>
      <tilted>0</tilted></_>
    <_>
      <rects>
        <_>
          6 1 4 4 -1.</_>
        <_>
          6 3 4 2 2.</_></rects>
      <tilted>0</tilted></_>
    <_>
      <rects>
        <_>
          6 1 4 12 -1.</_>
        <_>
          6 7 4 6 2.</_></rects>
      <tilted>0</tilted></_>
    <_>
      <rects>
        <_>
          6 2 8 9 -1.</_>
        <_>
          6 5 8 3 3.</_></rects>
      <tilted>0</tilted></_>
    <_>
      <rects>
        <_>
          6 3 6 1 -1.</_>
        <_>
          8 3 2 1 3.</_></rects>
      <tilted>0</tilted></_>
    <_>
      <rects>
        <_>
          6 3 4 8 -1.</_>
        <_>
          8 3 2 8 2.</_></rects>
      <tilted>0</tilted></_>
    <_>
      <rects>
        <_>
          6 4 7 8 -1.</_>
        <_>
          6 8 7 4 2.</_></rects>
      <tilted>0</tilted></_>
    <_>
      <rects>
        <_>
          6 6 6 4 -1.</_>
        <_>
          9 6 3 4 2.</_></rects>
      <tilted>0</tilted></_>
    <_>
      <rects>
        <_>
          6 6 8 5 -1.</_>
        <_>
          10 6 4 5 2.</_></rects>
      <tilted>0</tilted></_>
    <_>
      <rects>
        <_>
          6 7 6 4 -1.</_>
        <_>
          8 7 2 4 3.</_></rects>
      <tilted>0</tilted></_>
    <_>
      <rects>
        <_>
          6 7 9 6 -1.</_>
        <_>
          9 7 3 6 3.</_></rects>
      <tilted>0</tilted></_>
    <_>
      <rects>
        <_>
          6 14 5 6 -1.</_>
        <_>
          6 16 5 2 3.</_></rects>
      <tilted>0</tilted></_>
    <_>
      <rects>
        <_>
          6 16 8 1 -1.</_>
        <_>
          10 16 4 1 2.</_></rects>
      <tilted>0</tilted></_>
    <_>
      <rects>
        <_>
          7 0 5 2 -1.</_>
        <_>
          7 1 5 1 2.</_></rects>
      <tilted>0</tilted></_>
    <_>
      <rects>
        <_>
          7 1 4 2 -1.</_>
        <_>
          7 2 4 1 2.</_></rects>
      <tilted>0</tilted></_>
    <_>
      <rects>
        <_>
          7 1 6 18 -1.</_>
        <_>
          7 10 6 9 2.</_></rects>
      <tilted>0</tilted></_>
    <_>
      <rects>
        <_>
          7 2 8 2 -1.</_>
        <_>
          7 2 4 1 2.</_>
        <_>
          11 3 4 1 2.</_></rects>
      <tilted>0</tilted></_>
    <_>
      <rects>
        <_>
          7 2 7 6 -1.</_>
        <_>
          7 5 7 3 2.</_></rects>
      <tilted>0</tilted></_>
    <_>
      <rects>
        <_>
          7 4 7 8 -1.</_>
        <_>
          7 8 7 4 2.</_></rects>
      <tilted>0</tilted></_>
    <_>
      <rects>
        <_>
          7 6 4 4 -1.</_>
        <_>
          9 6 2 4 2.</_></rects>
      <tilted>0</tilted></_>
    <_>
      <rects>
        <_>
          7 7 4 3 -1.</_>
        <_>
          9 7 2 3 2.</_></rects>
      <tilted>0</tilted></_>
    <_>
      <rects>
        <_>
          7 14 4 6 -1.</_>
        <_>
          7 16 4 2 3.</_></rects>
      <tilted>0</tilted></_>
    <_>
      <rects>
        <_>
          7 14 7 6 -1.</_>
        <_>
          7 16 7 2 3.</_></rects>
      <tilted>0</tilted></_>
    <_>
      <rects>
        <_>
          7 14 8 6 -1.</_>
        <_>
          7 16 8 2 3.</_></rects>
      <tilted>0</tilted></_>
    <_>
      <rects>
        <_>
          7 16 6 2 -1.</_>
        <_>
          10 16 3 2 2.</_></rects>
      <tilted>0</tilted></_>
    <_>
      <rects>
        <_>
          8 1 2 8 -1.</_>
        <_>
          8 5 2 4 2.</_></rects>
      <tilted>0</tilted></_>
    <_>
      <rects>
        <_>
          8 1 4 10 -1.</_>
        <_>
          8 6 4 5 2.</_></rects>
      <tilted>0</tilted></_>
    <_>
      <rects>
        <_>
          8 1 5 10 -1.</_>
        <_>
          8 6 5 5 2.</_></rects>
      <tilted>0</tilted></_>
    <_>
      <rects>
        <_>
          8 4 1 2 -1.</_>
        <_>
          8 5 1 1 2.</_></rects>
      <tilted>0</tilted></_>
    <_>
      <rects>
        <_>
          8 4 6 1 -1.</_>
        <_>
          11 4 3 1 2.</_></rects>
      <tilted>0</tilted></_>
    <_>
      <rects>
        <_>
          8 6 4 4 -1.</_>
        <_>
          10 6 2 4 2.</_></rects>
      <tilted>0</tilted></_>
    <_>
      <rects>
        <_>
          8 6 4 5 -1.</_>
        <_>
          10 6 2 5 2.</_></rects>
      <tilted>0</tilted></_>
    <_>
      <rects>
        <_>
          8 9 5 6 -1.</_>
        <_>
          8 11 5 2 3.</_></rects>
      <tilted>0</tilted></_>
    <_>
      <rects>
        <_>
          8 10 4 10 -1.</_>
        <_>
          8 15 4 5 2.</_></rects>
      <tilted>0</tilted></_>
    <_>
      <rects>
        <_>
          8 15 12 4 -1.</_>
        <_>
          14 15 6 4 2.</_></rects>
      <tilted>0</tilted></_>
    <_>
      <rects>
        <_>
          8 17 3 1 -1.</_>
        <_>
          9 17 1 1 3.</_></rects>
      <tilted>0</tilted></_>
    <_>
      <rects>
        <_>
          8 17 3 2 -1.</_>
        <_>
          9 17 1 2 3.</_></rects>
      <tilted>0</tilted></_>
    <_>
      <rects>
        <_>
          8 18 4 2 -1.</_>
        <_>
          8 19 4 1 2.</_></rects>
      <tilted>0</tilted></_>
    <_>
      <rects>
        <_>
          8 18 5 2 -1.</_>
        <_>
          8 19 5 1 2.</_></rects>
      <tilted>0</tilted></_>
    <_>
      <rects>
        <_>
          9 0 3 2 -1.</_>
        <_>
          9 1 3 1 2.</_></rects>
      <tilted>0</tilted></_>
    <_>
      <rects>
        <_>
          9 1 3 18 -1.</_>
        <_>
          9 7 3 6 3.</_></rects>
      <tilted>0</tilted></_>
    <_>
      <rects>
        <_>
          9 2 9 12 -1.</_>
        <_>
          12 2 3 12 3.</_></rects>
      <tilted>0</tilted></_>
    <_>
      <rects>
        <_>
          9 5 6 6 -1.</_>
        <_>
          11 5 2 6 3.</_></rects>
      <tilted>0</tilted></_>
    <_>
      <rects>
        <_>
          9 6 2 6 -1.</_>
        <_>
          9 8 2 2 3.</_></rects>
      <tilted>0</tilted></_>
    <_>
      <rects>
        <_>
          9 6 4 4 -1.</_>
        <_>
          11 6 2 4 2.</_></rects>
      <tilted>0</tilted></_>
    <_>
      <rects>
        <_>
          9 6 6 6 -1.</_>
        <_>
          11 6 2 6 3.</_></rects>
      <tilted>0</tilted></_>
    <_>
      <rects>
        <_>
          9 6 8 2 -1.</_>
        <_>
          9 6 4 1 2.</_>
        <_>
          13 7 4 1 2.</_></rects>
      <tilted>0</tilted></_>
    <_>
      <rects>
        <_>
          9 7 4 6 -1.</_>
        <_>
          11 7 2 6 2.</_></rects>
      <tilted>0</tilted></_>
    <_>
      <rects>
        <_>
          9 8 2 12 -1.</_>
        <_>
          9 14 2 6 2.</_></rects>
      <tilted>0</tilted></_>
    <_>
      <rects>
        <_>
          9 13 10 6 -1.</_>
        <_>
          9 13 5 3 2.</_>
        <_>
          14 16 5 3 2.</_></rects>
      <tilted>0</tilted></_>
    <_>
      <rects>
        <_>
          9 15 2 4 -1.</_>
        <_>
          9 17 2 2 2.</_></rects>
      <tilted>0</tilted></_>
    <_>
      <rects>
        <_>
          9 16 4 2 -1.</_>
        <_>
          11 16 2 2 2.</_></rects>
      <tilted>0</tilted></_>
    <_>
      <rects>
        <_>
          9 17 3 1 -1.</_>
        <_>
          10 17 1 1 3.</_></rects>
      <tilted>0</tilted></_>
    <_>
      <rects>
        <_>
          9 17 3 3 -1.</_>
        <_>
          9 18 3 1 3.</_></rects>
      <tilted>0</tilted></_>
    <_>
      <rects>
        <_>
          10 1 2 18 -1.</_>
        <_>
          10 10 2 9 2.</_></rects>
      <tilted>0</tilted></_>
    <_>
      <rects>
        <_>
          10 2 2 10 -1.</_>
        <_>
          10 7 2 5 2.</_></rects>
      <tilted>0</tilted></_>
    <_>
      <rects>
        <_>
          10 5 2 8 -1.</_>
        <_>
          10 9 2 4 2.</_></rects>
      <tilted>0</tilted></_>
    <_>
      <rects>
        <_>
          10 6 4 6 -1.</_>
        <_>
          12 6 2 6 2.</_></rects>
      <tilted>0</tilted></_>
    <_>
      <rects>
        <_>
          10 6 6 7 -1.</_>
        <_>
          12 6 2 7 3.</_></rects>
      <tilted>0</tilted></_>
    <_>
      <rects>
        <_>
          10 8 6 2 -1.</_>
        <_>
          13 8 3 2 2.</_></rects>
      <tilted>0</tilted></_>
    <_>
      <rects>
        <_>
          10 8 7 4 -1.</_>
        <_>
          10 10 7 2 2.</_></rects>
      <tilted>0</tilted></_>
    <_>
      <rects>
        <_>
          10 13 8 3 -1.</_>
        <_>
          14 13 4 3 2.</_></rects>
      <tilted>0</tilted></_>
    <_>
      <rects>
        <_>
          10 14 1 4 -1.</_>
        <_>
          10 16 1 2 2.</_></rects>
      <tilted>0</tilted></_>
    <_>
      <rects>
        <_>
          10 15 2 4 -1.</_>
        <_>
          10 17 2 2 2.</_></rects>
      <tilted>0</tilted></_>
    <_>
      <rects>
        <_>
          10 16 10 3 -1.</_>
        <_>
          15 16 5 3 2.</_></rects>
      <tilted>0</tilted></_>
    <_>
      <rects>
        <_>
          10 17 2 1 -1.</_>
        <_>
          11 17 1 1 2.</_></rects>
      <tilted>0</tilted></_>
    <_>
      <rects>
        <_>
          10 17 1 2 -1.</_>
        <_>
          10 18 1 1 2.</_></rects>
      <tilted>0</tilted></_>
    <_>
      <rects>
        <_>
          11 1 2 3 -1.</_>
        <_>
          11 2 2 1 3.</_></rects>
      <tilted>0</tilted></_>
    <_>
      <rects>
        <_>
          11 1 3 3 -1.</_>
        <_>
          11 2 3 1 3.</_></rects>
      <tilted>0</tilted></_>
    <_>
      <rects>
        <_>
          11 5 4 10 -1.</_>
        <_>
          13 5 2 10 2.</_></rects>
      <tilted>0</tilted></_>
    <_>
      <rects>
        <_>
          11 7 9 7 -1.</_>
        <_>
          14 7 3 7 3.</_></rects>
      <tilted>0</tilted></_>
    <_>
      <rects>
        <_>
          11 8 6 7 -1.</_>
        <_>
          13 8 2 7 3.</_></rects>
      <tilted>0</tilted></_>
    <_>
      <rects>
        <_>
          11 8 9 7 -1.</_>
        <_>
          14 8 3 7 3.</_></rects>
      <tilted>0</tilted></_>
    <_>
      <rects>
        <_>
          11 8 5 4 -1.</_>
        <_>
          11 10 5 2 2.</_></rects>
      <tilted>0</tilted></_>
    <_>
      <rects>
        <_>
          11 9 6 6 -1.</_>
        <_>
          13 9 2 6 3.</_></rects>
      <tilted>0</tilted></_>
    <_>
      <rects>
        <_>
          11 16 2 1 -1.</_>
        <_>
          12 16 1 1 2.</_></rects>
      <tilted>0</tilted></_>
    <_>
      <rects>
        <_>
          11 16 2 2 -1.</_>
        <_>
          12 16 1 2 2.</_></rects>
      <tilted>0</tilted></_>
    <_>
      <rects>
        <_>
          12 6 2 4 -1.</_>
        <_>
          12 8 2 2 2.</_></rects>
      <tilted>0</tilted></_>
    <_>
      <rects>
        <_>
          12 8 4 5 -1.</_>
        <_>
          14 8 2 5 2.</_></rects>
      <tilted>0</tilted></_>
    <_>
      <rects>
        <_>
          12 10 6 5 -1.</_>
        <_>
          15 10 3 5 2.</_></rects>
      <tilted>0</tilted></_>
    <_>
      <rects>
        <_>
          13 4 6 4 -1.</_>
        <_>
          15 4 2 4 3.</_></rects>
      <tilted>0</tilted></_>
    <_>
      <rects>
        <_>
          13 9 4 5 -1.</_>
        <_>
          15 9 2 5 2.</_></rects>
      <tilted>0</tilted></_>
    <_>
      <rects>
        <_>
          14 6 1 3 -1.</_>
        <_>
          14 7 1 1 3.</_></rects>
      <tilted>0</tilted></_>
    <_>
      <rects>
        <_>
          14 6 6 11 -1.</_>
        <_>
          17 6 3 11 2.</_></rects>
      <tilted>0</tilted></_>
    <_>
      <rects>
        <_>
          14 6 6 13 -1.</_>
        <_>
          17 6 3 13 2.</_></rects>
      <tilted>0</tilted></_>
    <_>
      <rects>
        <_>
          14 7 6 7 -1.</_>
        <_>
          17 7 3 7 2.</_></rects>
      <tilted>0</tilted></_>
    <_>
      <rects>
        <_>
          14 7 6 12 -1.</_>
        <_>
          17 7 3 12 2.</_></rects>
      <tilted>0</tilted></_>
    <_>
      <rects>
        <_>
          14 8 6 10 -1.</_>
        <_>
          17 8 3 10 2.</_></rects>
      <tilted>0</tilted></_>
    <_>
      <rects>
        <_>
          14 10 2 2 -1.</_>
        <_>
          15 10 1 2 2.</_></rects>
      <tilted>0</tilted></_>
    <_>
      <rects>
        <_>
          14 12 6 4 -1.</_>
        <_>
          16 12 2 4 3.</_></rects>
      <tilted>0</tilted></_>
    <_>
      <rects>
        <_>
          15 6 1 6 -1.</_>
        <_>
          15 8 1 2 3.</_></rects>
      <tilted>0</tilted></_>
    <_>
      <rects>
        <_>
          15 7 2 6 -1.</_>
        <_>
          15 9 2 2 3.</_></rects>
      <tilted>0</tilted></_>
    <_>
      <rects>
        <_>
          15 8 4 5 -1.</_>
        <_>
          17 8 2 5 2.</_></rects>
      <tilted>0</tilted></_>
    <_>
      <rects>
        <_>
          16 4 2 8 -1.</_>
        <_>
          16 4 1 4 2.</_>
        <_>
          17 8 1 4 2.</_></rects>
      <tilted>0</tilted></_>
    <_>
      <rects>
        <_>
          16 9 2 2 -1.</_>
        <_>
          17 9 1 2 2.</_></rects>
      <tilted>0</tilted></_></features></cascade>
</opencv_storage>
