<?xml version="1.0"?>
<opencv_storage>
<stage15>
  <maxWeakCount>12</maxWeakCount>
  <stageThreshold>-7.7583640813827515e-01</stageThreshold>
  <weakClassifiers>
    <_>
      <internalNodes>
        0 -1 72499 -4.2401738464832306e-02</internalNodes>
      <leafValues>
        6.2530416250228882e-01 -1.2121212482452393e-01</leafValues></_>
    <_>
      <internalNodes>
        0 -1 35874 -5.2671832963824272e-03</internalNodes>
      <leafValues>
        6.1722886562347412e-01 -2.0952564477920532e-01</leafValues></_>
    <_>
      <internalNodes>
        0 -1 58525 8.0643016844987869e-03</internalNodes>
      <leafValues>
        -3.1041306257247925e-01 4.2704027891159058e-01</leafValues></_>
    <_>
      <internalNodes>
        0 -1 32339 -2.8663773555308580e-03</internalNodes>
      <leafValues>
        3.1431984901428223e-01 -4.0821078419685364e-01</leafValues></_>
    <_>
      <internalNodes>
        0 -1 41410 3.7460026796907187e-03</internalNodes>
      <leafValues>
        1.4410260319709778e-01 -8.6913371086120605e-01</leafValues></_>
    <_>
      <internalNodes>
        0 -1 62317 1.2856356333941221e-03</internalNodes>
      <leafValues>
        1.2079021334648132e-01 -8.5301673412322998e-01</leafValues></_>
    <_>
      <internalNodes>
        0 -1 37464 -4.9894169205799699e-04</internalNodes>
      <leafValues>
        1.5521912276744843e-01 -6.6146707534790039e-01</leafValues></_>
    <_>
      <internalNodes>
        0 -1 53352 1.1224480345845222e-02</internalNodes>
      <leafValues>
        -2.6638484001159668e-01 5.0257772207260132e-01</leafValues></_>
    <_>
      <internalNodes>
        0 -1 25640 -4.9031328409910202e-02</internalNodes>
      <leafValues>
        -7.5989019870758057e-01 1.5429992973804474e-01</leafValues></_>
    <_>
      <internalNodes>
        0 -1 69667 -4.2296331375837326e-03</internalNodes>
      <leafValues>
        3.7109938263893127e-01 -3.2456731796264648e-01</leafValues></_>
    <_>
      <internalNodes>
        0 -1 64599 -1.4450784772634506e-02</internalNodes>
      <leafValues>
        4.4122576713562012e-01 -2.9603871703147888e-01</leafValues></_>
    <_>
      <internalNodes>
        0 -1 56713 5.3182048723101616e-03</internalNodes>
      <leafValues>
        1.3029359281063080e-01 -9.3605905771255493e-01</leafValues></_></weakClassifiers></stage15>
</opencv_storage>
